digraph Tree {
node [shape=box] ;
0 [label="sunrise and <= 0.5\ngini = 0.255\nsamples = 20\nvalue = [17, 3]"] ;
1 [label="made it is <= 0.5\ngini = 0.1884\nsamples = 19\nvalue = [17, 2]"] ;
0 -> 1 [labeldistance=2.5, labelangle=45, headlabel="True"] ;
3 [label="culture wars in <= 0.5\ngini = 0.1049\nsamples = 18\nvalue = [17, 1]"] ;
1 -> 3 ;
5 [label="gini = 0.0\nsamples = 17\nvalue = [17, 0]"] ;
3 -> 5 ;
6 [label="gini = 0.0\nsamples = 1\nvalue = [0, 1]"] ;
3 -> 6 ;
4 [label="gini = 0.0\nsamples = 1\nvalue = [0, 1]"] ;
1 -> 4 ;
2 [label="gini = 0.0\nsamples = 1\nvalue = [0, 1]"] ;
0 -> 2 [labeldistance=2.5, labelangle=-45, headlabel="False"] ;
}